Date,XOM,SHW,UPS,DUK,UNH,JPM,AMZN,AAPL,MSFT,AMT
2018-11-27,7.001734852852061,1.8978674110014062,-8.552130957515422,1.1319564023090807,-9.913580607465981,-4.871703721649171,-11.355850250543813,22.260161477646168,2.2280042078784956,1.1735411854871722
2018-11-28,-0.14251631829455988,0.4628359157491389,0.06657452972042789,-0.26753747873318884,0.3252287068798075,0.08783466006621274,0.11212764236293958,-0.1458570034284257,0.5779784860369529,-0.076669140359305
2018-11-29,0.06562951878428781,0.021443363419742147,0.04330335752933467,0.16692981753035846,0.1968247417550468,0.009458602340343708,-0.011252903228602222,0.3646507005593434,0.12051102892439529,0.022501772385749932
2018-11-30,-0.21435327440841237,0.07812470675871248,-0.022322574470844257,0.3188297864314407,0.6438936825113205,-0.20936570347368738,-0.34377862359976286,0.3741500077592059,-0.00739196387082573,0.38221395636285305
2018-12-03,-0.17088246005461777,0.2067807435858301,-0.01643275024157584,0.16601066527637046,0.3218355004975251,-0.03391962991397669,-0.007159908062552363,0.11000454511345788,0.1354994912269117,0.2882638025726275
2018-12-04,0.06768139955506335,0.05262723040257775,0.014597325626346244,0.12922189270742257,0.2910035279621298,0.16541211164003045,-0.05640274523956489,0.16699645123425907,0.07905577470519616,0.08980703140653944
2018-12-06,2.3150105150989595,-0.9774332088221379,-1.108328199322751,4.636400152903665,2.8816671225274586,1.4090778741521106,-5.892008381503147,-4.037980363751182,-1.3614664393742186,3.1350609280912436
2018-12-07,0.05221803397137521,-0.010171770678288101,0.051537063419379615,0.14198594542466839,0.2965717672856335,-0.11233800591838544,0.09311174674257287,0.06808376091514187,0.1360497579298152,0.28295170090808686
2018-12-10,0.04158415063046215,-0.11338714068149627,0.10307762280152773,0.23792013573544846,0.1874989965504079,0.03486683684172804,0.21561738501152342,0.18887215523582848,-0.14616321152966624,0.2501130694042364
2018-12-11,0.07642394485478066,0.08108792425924961,-0.10553867228955645,0.379547545625098,0.2957036303229163,-0.2804275887397626,0.23125205582996408,0.018972144523280693,-0.11629647742537456,0.4192754930394041
2018-12-12,0.2481646838348587,-0.09622871487582178,-0.20450435805094883,0.8844569123500429,0.191190072197817,-0.6884568126773469,-0.6155271367438346,0.3534181026185436,0.1551064841771095,0.7723807671695805
2018-12-13,0.09550631450724355,0.2638623331126499,0.06688660052683333,0.6743959621639604,0.3995547377941585,-0.6858136469451322,-0.41865594632392567,0.009079135666333197,0.2108548040174991,0.38432970548038003
2018-12-14,0.06856165107940349,-0.05768418182075897,0.007834545500794378,0.47321408476402044,0.4272167555769053,-0.3411520932566948,-0.3617638775722043,0.28093852546459325,0.14694099173656477,0.3558935985273764
2018-12-17,0.03774662093707443,-0.034427407513896544,-0.11105008499986581,0.5316951217532992,0.25625839591032407,-0.2743337062819612,-0.12477866020866732,0.033576844373209,0.13353703010990492,0.5517758459205793
2018-12-18,0.8462027892890726,0.23567325748578694,0.4955629892377574,-3.6527137513771217,0.05857412115798691,2.921220207425108,2.159673413968107,0.11911132513353635,1.088252988366111,-3.271557340686344
2018-12-19,0.054534954999376065,-0.08603385859813341,0.09932647504368355,0.6949559289452882,0.32972156821806603,-0.4630846461684933,-0.6887654766556982,-0.2155485655644075,0.47503173033413276,0.7998618894461859
2018-12-20,0.10332497786102615,-0.198074564288438,0.0509464731002963,0.27810120489598317,0.5862487251468652,-0.4506054988517679,-0.15069695723644402,0.1892259238821006,0.10095066871155053,0.49057904677882797
2018-12-21,0.18568921066900212,-0.15532636518470408,-0.01735274531946637,0.1608449726375307,0.27890172459830925,-0.03425264700312026,0.2922442295480482,0.0752370783455755,-0.07104037323435075,0.2850549149431757
2018-12-24,0.12203391732919808,0.0611804233578596,-0.02810079681584718,0.18421035645356387,0.22525672168127384,-0.028534565532688738,0.04445286648215201,0.0935884929642872,0.18379939914005247,0.14211318494014863
2018-12-26,0.34105809036055695,0.9583542069821657,0.12491874182029046,-0.2715598374089651,-1.1606612212732572,0.2780981262646133,0.9985905509673835,0.641031651638605,-0.7566431556632968,-0.15318715368809607
2018-12-27,0.1308733072460856,-0.051345222456781726,0.014119155102743208,0.1617798918723062,0.34172049052798165,-0.10557726825399642,0.04410752162860792,-0.013712323668551879,0.19493847675280185,0.2830959712488036
2018-12-28,-6.102293546684693,3.9025004426171113,0.204258058285019,-4.213082549321562,-6.405795907859772,13.097731040932041,9.710096000620426,0.8021770508853528,1.8276377070888736,-11.823228296562801
2018-12-31,4.087460906151035,-2.9780918663727722,-0.9252817284685703,2.2030185458792984,2.0304256126606886,-8.718292839091944,-0.586562197491703,-0.4421593141697425,0.4762129225641244,5.8532699583395855
2019-01-02,1.5095249325304159,-0.5931002638998698,-0.039104286866389476,1.0272280813470835,1.0947133965776683,-2.059269842118622,-1.0918445774650651,0.40828568498260415,-0.7780854222668159,1.5216522971789899
2019-01-03,0.23229184507412626,-0.19858686757070745,-0.005887164898245182,0.22351708565804077,0.48414627923582876,-0.5892814167427115,-0.05290410623210031,0.17317306545641178,0.3383182324949117,0.3952130475244452
2019-01-04,-0.1573889727588171,0.28462605368970334,0.015219170672215293,-0.13852702784825072,-0.12741918172194644,0.4195174375149669,0.564141584338367,0.24250684088736968,0.2833308347286628,-0.3860067395022707
2019-01-07,0.4231403577172075,-0.7547430010318819,0.09020918789309319,0.4531751852873606,1.081983309680627,-0.90704513559598,0.10283832851828409,-0.5540011492526817,-0.16771216769675285,1.2321550844807239
2019-01-08,-0.3860881848983492,2.008637408531109,-0.04557327750031535,-0.4308428225247849,-2.378014524702014,2.1625754539064137,0.35826750987716877,0.7128928535903173,1.9186818269841865,-2.9205362432637325
2019-01-09,0.4504931892507749,2.4591516121846535,-0.781478986708991,-2.4278153946123275,-4.662552073336267,3.352936680065227,3.2808208081329577,2.047142340607867,1.9579453714350252,-4.6766435470189185
2019-01-10,0.16692237064220308,0.7403503572985879,0.02240001489869665,-0.39514325173595316,-1.2748147669131933,1.1335170877277922,0.8483017362318027,0.833855842912537,-0.0330868954422932,-1.0423024956201798
2019-01-11,0.01030008888513883,0.6592139949284758,-0.5994914276816646,-0.9272165822648016,-2.5594019386312556,2.4029447795975076,2.2170911486585205,0.9267672591886088,1.873469307864422,-3.0036766305449514
2019-01-14,0.13924474450803356,0.9455374951813387,0.342372992152974,-0.935887156046233,-1.1979888778173347,1.9413703008310457,-1.0150214656045518,0.39546711910119237,1.7050463680871981,-1.320141520393663
2019-01-15,-0.11036957769153313,0.0500780703103464,-0.12388647800814542,-0.11347604393132471,0.24538583223893334,0.42573322714525685,-0.020149343923950538,0.36341669073932964,0.3931716332486995,-0.10990401012761199
2019-01-16,0.03835582533184291,0.24550998875445423,0.0029831841125097657,-0.19730000296612454,0.4012427172118265,0.2815292346778077,0.2116608361121154,0.20695700987136284,-0.008913182046019893,-0.18202561105977502
2019-01-17,-0.04511825027404263,0.2593280791130607,-0.0511701359091132,-0.06750708296854992,0.09655850987181759,0.358109839845076,0.26733416236753016,0.33792940723833964,0.12028166326140863,-0.27574619254552707
2019-01-18,0.1250795234039064,0.19416104234873682,-0.05489117571003717,-0.09731615721556375,0.3062813406821236,0.2582955240049604,0.12493243648153426,0.1782143178105941,0.20418300578912857,-0.23893985759538333
2019-01-22,-0.03188447204950408,0.2760916101707567,0.12750351095259987,-0.12620264403698295,0.3363559978435383,0.3389749762545521,0.054636424910304134,0.20345033996076642,0.17325469791889012,-0.35218044192492065
2019-01-23,-0.036058695570163404,0.18685851488542954,0.11585159831486103,-0.14513087495405722,0.2800577276209063,0.373590719322994,-0.17554099971744547,0.40665268084159434,0.29847634776595977,-0.3047570185100788
2019-01-24,0.06491904955672634,0.21437310498346332,0.39718727002921966,-0.060952177402198805,0.5424273631178117,0.7162240673743077,-0.36513734933243824,0.5986064801217369,0.2359433702631113,-1.3435911787117396
2019-01-25,0.0011711824937120786,0.24597310991189564,0.18259858005358848,-0.26233952017788054,0.3192553480825398,0.291332305557584,0.36003325920383256,0.29391843907853554,0.24707901600776835,-0.6790217202115759
2019-01-28,0.21846342708320024,0.7159906810521784,0.4110330406242069,-0.2683110653064426,0.5301190648464853,0.5773281276407274,0.4105778930171256,0.18053181119716907,0.25719220427868267,-2.0329251844333327
2019-01-29,0.2646422906470222,1.5916351567425806,1.2065435589306632,-0.4098276957514135,1.2209327708589617,0.6221656444956025,-1.1342237031498004,0.7176684607866038,0.6723430223658592,-3.7518795059260794
2019-01-30,0.012412733072116799,0.3113630526406187,0.09710822638300917,-0.0325053295310767,0.18684772592719617,0.0863158919760845,0.04129768095340633,0.491480661606707,0.3770454544582833,-0.5713660974863454
2019-01-31,0.10557571135403493,0.35868919010298006,0.10393664517569424,0.0886881131555711,0.1608130764892656,0.17925291187076112,0.3950978365321473,0.04470090143727686,0.11961028627225456,-0.5563646723899859
2019-02-01,-1.3029068147996872,-1.0114341400563591,0.07172943839284553,1.8446987171869806,-1.3496164847956573,-0.3169560070121383,-0.5081697487660085,-1.658167886039235,-0.9345859598694782,6.165408885758738
2019-02-04,-0.09472634150163288,1.1337519460460215,1.270526911845976,-1.244448742920307,0.9306774487988343,-1.0508018002972779,-0.31018327883023833,1.8272774441078747,2.1045428549469327,-3.5666164421961826
2019-02-05,-0.292432957090476,-0.45813108164264116,-1.009985672621632,0.647939293789245,-0.35711640408797796,-0.202447595002751,0.726898049702337,-0.4692893764510419,-0.017676902057686378,2.4322426454626243
2019-02-06,-0.6356677674305831,-1.2385707296490036,-0.4212803459665143,3.2676971199198586,-2.3765994124241288,0.278073641650976,-3.1145286993641754,-2.8869703672070743,-1.1735467980145513,9.301393358485196
2019-02-07,-0.20644973332338046,-0.0984581532078927,-0.46387822167726694,0.43912321730115733,-0.33201873048964076,0.08328376733851361,0.4936539986448669,-0.3594034441544053,-0.2238007938810358,1.667948093449084
2019-02-08,0.027701589985809457,-0.09947930631983566,-0.09835037255060555,0.31877424903766044,0.12326525399252865,-0.1092461179456406,0.07686808709716465,-0.07479434433509188,-0.0371810861847351,0.8724420472227457
2019-02-11,-0.05924672297222609,-0.14120179686636877,-0.025556798384373736,0.49661914724814393,0.05846096841747396,-0.17081508959091074,0.02408284673680156,-0.04324525748434207,-0.24318055067174074,1.1040832535675429
2019-02-12,-0.09847824468951477,-0.09192162964012907,-0.25326449416619085,0.5265130467036545,-0.3476662103406779,-0.14486189704268465,0.14018799516819677,-0.06712952581697014,-0.012795992270923089,1.3494169520952393
2019-02-13,-0.039546260342532405,-0.005070268894974365,-0.09846761489826075,0.2826970512155742,0.05110735682202489,0.028122945076831874,0.17796511510728902,0.02061637452555239,-0.012909854045643526,0.5954851554341386
2019-02-14,-0.003331580099344049,-0.03924223705254179,-0.030046222525264586,0.3192044302627733,-0.08989702880590301,-0.011727911923066797,0.1423648551737727,-0.0009126105505224689,0.011085684912159915,0.7025026206079369
2019-02-15,-0.0548177405874145,-0.13142715775904307,-0.23137931703174397,0.3542704506591174,-0.18790077734382554,0.005693075185233645,0.11613616112538597,0.03707419911393302,-0.05798699774917722,1.1503381043875343
2019-02-19,-0.012856842703375355,-0.052856001637151956,-0.12427724251855536,0.2205343314269728,-0.045111944950365766,0.09254931180144614,0.07839355424329385,-0.013973272587766096,-0.014968319251420356,0.8725664261769221
2019-02-20,-0.09515308001941437,-0.10058241180577455,-0.20325903710202287,0.27435167659883347,-0.05709080884197397,-0.04613663552819287,0.18015129285651088,0.04472573480326363,0.014669590902381775,0.9883236781363889
2019-02-21,-0.028655112607408318,0.02976290974463857,-0.1220011192999893,0.2754345116002256,0.03136206423845544,0.004109346777457565,0.07367708858021672,-0.01693304849789476,0.01152388257638855,0.74171947688791
2019-02-22,-0.011672999437008497,0.016073904752443614,-0.08452092897032779,0.3657647252544065,-0.054592753912228266,-0.01579461638756841,0.06926924053405346,-0.0924178082665827,-0.09384874991187302,0.9017399863446851
2019-02-25,-0.022610365757774392,-0.016121606725642366,-0.06801665764811428,0.3731454052026521,0.03861479292110174,-0.08275308608397043,0.08514110119855482,-0.06885029373482847,-0.08860797568906799,0.8500586863170893
2019-02-26,-0.00858431280541397,0.004769286595486465,-0.021524250383547088,0.29485193789603437,0.0530615236649876,0.03359933015946124,0.09529642782110433,0.03900317881829912,-0.037975582331821287,0.5475024605654092
2019-02-27,-0.01928687608063831,0.023188131140625904,-0.02474573135181107,0.24714133004307123,0.18709362910123656,-0.04760059684419121,0.10024077267715922,-0.09399817881207388,-0.0014565723425782608,0.6294240924691998
2019-02-28,-0.03311714885862231,0.06249534088608798,-0.10821510389175967,0.2761463966275354,0.23275818079901828,-0.012057428269359653,0.11427199248955297,-0.011665042342777397,0.044804600445943796,0.4345782121143806
2019-03-01,-0.10397823783355398,0.06953499758187921,-0.2143833347615862,0.39792515176080684,0.22847692369962713,-0.10175007397779581,0.1623214089648913,-0.0672430879894938,-0.02265287755842101,0.6517491301136464
2019-03-04,-0.13446610523302485,-0.02649958834887575,-0.02136234579147791,0.43797102006429933,0.38420844665411674,-0.06832710732384682,-0.1463275128600211,-0.06241217112214946,-0.11868795243123598,0.7559033163922159
2019-03-05,-0.04140080355703428,0.0676267330740531,-0.03260368994529269,0.3548271784461184,0.020380048076107837,0.05280795181555112,-0.05156165205085482,0.024334254520134605,-0.0005321753879634748,0.6061221550091802
2019-03-06,-0.054276024113676956,0.052375117409829,-0.05425322129091536,0.24353662420314642,0.3013725492581977,0.035675799257358115,-0.04444572581217785,0.023717599424578992,-0.002161757526435147,0.49845903919009515
2019-03-07,-0.05491999367480711,0.056087486255527674,0.00010146225028070766,0.21204132694991307,0.2355942926617527,0.013219799921115835,-0.040906704479724665,0.01706686089308053,0.014038485490481926,0.5476769837323793
2019-03-08,-0.03696257693038358,0.017123170691377212,-0.01722697466823879,0.20076410347384704,0.2023686634400906,0.0014675953186765,0.0629434515469433,0.03681304879705247,-0.018277143954161815,0.550986662284797
2019-03-11,-0.041481134789737355,0.028915592977932496,-0.009491029083429216,0.33473449547202133,0.1336890148928282,-0.008299963517965466,0.029834189587119885,-0.13454677132271736,-0.05672245499870873,0.7233680607826563
2019-03-12,-0.0034482260660664683,0.01156026695844819,-0.006798770391659537,0.23166056012062805,0.20166353833197956,-0.0016797590306548685,-0.08513792509996773,0.05640845592759174,-0.03276304300986198,0.6285349022595629
2019-03-13,-0.03130620146212942,0.0511869514703352,0.0036356623621128436,0.29159726950552217,0.07581148029438928,0.013093154898485802,-0.08038035204447716,0.08294589949327862,0.005940874256384783,0.587475261226098
2019-03-14,-0.0066213790747676315,0.007040676913156706,-0.0011311169209811758,0.311149987554606,0.004090333301857815,-0.0017709960972916148,-0.03933433758937215,0.007396024454206914,0.026247839450824983,0.6929329680077603
2019-03-15,-0.06202912654306782,-2.4547964109715808e-06,0.027306579113380216,0.33185454385268026,-0.01607419949635327,-0.034809283903163665,0.024393232277473798,-0.16701428634819973,0.01613194020178577,0.8802430556418754
2019-03-18,-0.02477405733781535,-0.017798665555737687,-0.0003991258149664503,0.3578272897740809,-0.06450561136073824,-0.05643110143860287,0.01823692758890184,-0.04197173352132079,0.050876419106961994,0.7789396585592366
2019-03-19,-0.04969143935375784,-0.014733687580989273,0.019400343287151012,0.31387383580910594,-0.1358187345560896,-0.05359725980209223,-0.04823457473879319,0.007106434488105348,0.12306638234019142,0.8386287001071684
2019-03-20,-0.00601981237857336,0.003166392326858887,-0.010180803734906374,0.2359340007032185,-0.03413682836978916,-0.043850848932692074,-0.07282975980961122,0.005340764241654765,0.12198172356137323,0.8005951723924668
2019-03-21,-0.01974315199356319,-0.04169142232358885,-0.09435197530823938,0.36840261779652034,-0.12207075626718532,-0.08425018531017955,-0.025603762253880478,-0.3051968255369815,0.13640231906979236,1.1881031421273056
2019-03-22,-0.0021570721427263866,0.060703347742947215,-0.0063069330704215104,0.15558252800996267,0.01186396134699024,0.07143256122960738,0.022045092146556942,-0.018854603593470506,0.15680762447786506,0.548883493852689
2019-03-25,0.013150054010510512,0.049071532747612855,-0.03972105025521358,0.306019731912417,-0.0414958013674008,-0.10476546182790422,-0.07402038062565633,-0.13862331441003856,0.12115950403707672,0.9092251857785965
2019-03-26,-0.040247294060710266,0.08983964065055194,-0.02733250442440333,0.2362374004932527,0.05851499433760401,-0.12248318767899227,-0.01298084079729315,-0.05769900649919152,0.11933753733679105,0.7568132606423909
2019-03-27,0.020361300682845637,0.0407612764241907,-0.01842966996391077,0.24356171640480467,0.09566514951543156,-0.060949713056904276,-0.05836660812161319,-0.015989146614118575,0.14636717605697636,0.6070185186722978
2019-03-28,-0.004831231134283534,0.007800318703523022,0.018751911946047254,0.21951108739661637,0.13641768580911895,-0.08500210124011644,-0.07063936908100435,-0.007583701035809113,0.12169375921891651,0.6638816394169913
2019-03-29,0.026156257857233158,0.020757093232061253,0.0067506334827162695,0.16616023092857296,0.09965174068905538,-0.04508962504812021,-0.05232098051783693,0.019340788719055476,0.08401054106515166,0.6745833195921109
2019-04-01,-0.012110836204279753,0.0022738793258233977,-0.08711823208095897,0.24660880737515276,0.11506174109179843,-0.02963784966604082,-0.11713466989641878,-0.08255079809258815,0.15728866241318865,0.8073192957343233
2019-04-02,-0.021966021323477358,0.025508263362618733,-0.021249750921118738,0.2145346782782957,0.03426702785780231,0.03410091670866773,-0.0868350550245891,-0.015685988318121156,0.16349883639802582,0.673827092981896
2019-04-03,0.005065751023070753,0.012804718293164881,-0.03776924948410037,0.20443042615109908,0.05416354493771295,-0.005960386059906259,-0.060317070920171224,0.020787890572892403,0.17688875097659798,0.6299056245096399
2019-04-04,-0.013016756312158468,-9.79532363995945e-05,-0.036030106837470904,0.17614010323182808,0.04944491878988477,-0.013696595698878017,-0.06188603576460553,0.053197821528216734,0.1903870395089555,0.6555575647906274
2019-04-05,-0.03161977060225042,-0.03398422870719751,-0.04141633639527846,0.21146801891125638,0.011633141898369379,-0.0540411923305352,-0.03773540569343224,0.06976253346891047,0.18790062064128307,0.7180326188088745
2019-04-08,-0.0176782827590194,-0.01217897672448523,-0.009490979753479466,0.23781310550695475,-0.028909374910755684,-0.002394130989119314,-0.03878648509215524,0.08112307180978591,0.16881114280473683,0.6216909101075369
2019-04-09,0.025417103698262968,0.00945170636671608,0.0009292236685116385,0.20981960759656573,-0.01574184126652183,-0.05590336816057399,-0.028498092129785116,0.1022429010135714,0.15704289250305575,0.5952398667101974
2019-04-10,-0.013048656317537795,-0.015619376977998282,-0.007231077809546858,0.20253204809590716,-0.002145096982399838,0.013048597895490724,-0.02244616305660904,0.0855467126296044,0.13132492578539934,0.6280380867376902
2019-04-11,-0.00010693380573229141,0.003803232901025617,-0.016155946040204792,0.14918885305451537,0.08848126216795539,0.00035294981251797946,0.009717062859395689,0.10880156530560794,0.12826806189302592,0.5276498918518933
2019-04-12,0.020778417340222535,-0.0444091490772626,-0.01002938164416533,0.18608151335492215,0.08041213429646428,-0.044992482823371385,-0.02010905340033238,0.09016269822333046,0.16536999431378738,0.5767353094164049
2019-04-15,0.013358992373712115,-0.01166634136521313,0.016326172956096174,0.15548869167728166,0.1079127675365394,0.004053100292076447,-0.010816101545052258,0.07389641428506999,0.1466645886255481,0.5047817151639414
2019-04-16,0.008673289697551918,-0.02286185042336379,-0.008930920113681596,0.16630728829844235,0.14097569419522832,-0.017403122819286247,-0.01091793107303671,0.0948699730866864,0.15329744393888778,0.4959901352125715
2019-04-17,0.010241968454232137,0.03406617757842718,0.0017293700346521807,0.15527639436594032,0.0984524962345392,-0.03241864188635821,0.01883484163242927,0.07432527724697627,0.1557827605791226,0.483709355760039
2019-04-18,0.02171405407108664,-0.056457360897233556,0.005014101614668223,0.1723533643791964,0.022743946245806917,-0.0013148415044885807,0.02618908181119693,-0.008269265705640093,0.20796734218014445,0.6100595778052627
2019-04-22,-0.009090304842918237,0.018896420603850328,0.0024719124332635723,0.1600664094930092,0.051697778551226994,-0.0022679110361159363,0.0065891418910816206,-0.040097534135133915,0.23854553131487383,0.5731885557268626
2019-04-23,-0.012501510429811983,0.014797637937253664,0.002290273646255327,0.14467004539295036,0.11808656459482648,-0.02553951764179063,-0.03816193351706641,-0.03234069325885469,0.2345958302615257,0.5941033030147123
2019-04-24,0.004027724426251004,0.0554464568852241,0.0246077358100506,0.13801228471247892,0.019002309643240522,-0.018440829240536995,-0.0032100329118908213,-0.046527644683284866,0.2649702804051155,0.5621117149533521
2019-04-25,-0.006626655768778398,0.038228779905589684,0.1380398973420074,0.14027790713630706,0.01139541870142287,-0.01950525899695417,-0.005976652507495802,0.03095020955710499,0.20344144113640897,0.4697749134943874
2019-04-26,0.022220982481137935,0.055973866946146034,0.012233159016261642,0.1495898230843628,0.012971271800686588,-0.026370800471741913,0.015340626142679645,0.01237694727048781,0.26773061652770674,0.47793350720227273
2019-04-29,0.005031192783012043,0.044931166840561,0.021143322706084395,0.1432695352375238,0.02512930986883536,0.0069594409185926714,0.004747678859347814,-0.0023309808277691847,0.2772745705777053,0.47384476303610684
2019-04-30,0.015671137648690162,0.029113871027387783,0.0328050623337266,0.14175637176921657,0.05329526899312425,0.027945086147310134,-0.001084761510004886,-0.019668534457358833,0.2917234067805874,0.4284430912673209
2019-05-01,0.038645406378217353,0.021801710971453243,0.03131631311974468,0.15806861798443195,0.04084188872766397,0.022662008139068383,0.02080430629271666,-0.047009371779756275,0.28311991878256176,0.4297492013838984
2019-05-02,0.012603037399045959,0.034381081749876245,-0.004274444776296654,0.15187223486517853,0.03270648217931685,0.002005046057576329,0.012504882088348247,-0.012973006940558428,0.2830886737730502,0.48808601360446285
2019-05-03,0.02151785801118787,0.07377956842957152,0.0020846232405401835,0.1481332118731617,0.05036494941671788,0.0072000813547100995,-0.025738557737305736,-0.016234621254947373,0.2351885168233814,0.5037043698429824
2019-05-06,0.016381640807336836,0.03940490276838257,0.03707147057312397,0.1379633132274209,-0.004760503429532852,0.032791624479778125,0.013197738081924629,0.003721513465346328,0.2572207751792955,0.46700752484692404
2019-05-07,0.028427598175880572,0.06243905396379829,0.026790396393015482,0.12615276366000172,0.05370334732158437,0.02453701555726844,-0.0045347953402882476,-0.05247618174537184,0.31067506346564405,0.42428573854846713
2019-05-08,0.006010698858333214,0.035120929345629937,0.01898792220051908,0.15013987337126777,0.03634563536579933,0.01651652904989191,-0.013378264207642482,-0.023548097447455146,0.3005348568725013,0.4732699165911551
2019-05-09,0.02214161983230514,0.028343575808190673,0.038245361876091406,0.12428542644890947,0.05258546331611768,-0.0004535704739622826,-0.0077743576835282375,-0.051187644187653446,0.2886053568137127,0.5052087682498169
2019-05-10,0.011781689173293216,0.0009441117532805535,0.017933352767157486,0.06605572097471937,0.03906956468524297,-0.0054002634828354025,0.026107968183729475,0.05679449887553431,0.31659785002040997,0.4701155070494682
2019-05-13,0.014455710290614975,0.029357444741008733,0.0028328490127103646,0.0831676257688881,0.04750324327533983,0.011215801648034814,0.04206481058837831,0.12280532340992836,0.26067776690097366,0.3859194243641229
2019-05-14,0.002900812871371502,0.007385559963251033,-0.015605973926818504,0.12155764843445625,0.060606159294493187,0.020322359441796604,0.011460316971791255,-0.013879626205796743,0.2590401805567717,0.5462125625986838
2019-05-15,0.010965745130662145,0.02765158682249383,0.011369836578817082,0.09656049155374534,0.021957557763341455,0.0359885382015786,0.022183629520917122,-0.050785664530429986,0.28112903433054254,0.542979244628332
2019-05-16,0.011099604505264671,0.027030988435513957,0.02890750045351421,0.08518154485638593,0.008202044407725635,0.0032886301957461028,0.02273519717467429,-0.034532454782571005,0.2910132852805266,0.5570736594732196
2019-05-17,0.0038576137383942856,0.018448856045932525,-0.005111684664070429,0.09900391812060451,0.02260052921571003,0.012050407584706612,-0.005363863899477905,-0.07437327131081996,0.36277630114315906,0.5661111940258613
2019-05-20,0.00627667101571798,0.004991747418429595,0.009730973057281224,0.09584614802296279,0.05510373015073786,-0.01707249266259954,0.03127607551008963,0.033582675011916266,0.29103952324776244,0.48922494922770177
2019-05-21,0.011658808630077549,-0.0310002215213304,0.01011814088470712,0.12676165200007472,-0.015588831293713077,-0.0114256861230443,0.01566309386605634,-0.08302209361069988,0.36303240940512477,0.6138027277627471
2019-05-22,0.019760770271996186,0.020278765380303435,-0.0010597189447571346,0.11162319347866123,-0.028962506382804922,0.01470665205789886,-0.0137235454993119,-0.012222209471406904,0.33244103129804087,0.5571575678113801
2019-05-23,0.04157887084035612,0.01495975312872225,-0.009707484955703269,0.11712296257069037,-0.044009445223920106,0.014847054038141273,0.013281355400768963,0.07188374940635706,0.2926450330029371,0.48739815179165014
2019-05-24,0.007804453597454747,0.011479411084169088,-0.012593448629231157,0.1413119630738637,-0.02834635190162483,0.02135798522081591,-0.020729740025766604,0.07039535510011741,0.2822097604587445,0.5271106120214573
2019-05-28,0.01087700495420669,0.0027688228347751338,-0.008841578473634685,0.13224552143608032,-0.016005613030199203,0.04330612444449764,0.01396014789794832,0.11055615287672729,0.252995051471819,0.45813836558777943
2019-05-29,0.01690277157147226,-0.006101580410268055,-0.0017462647938635495,0.10512837781935438,0.012977037091374703,0.03618015911290976,0.0006577287291968352,0.10372452012321787,0.26048551457039965,0.47179173618620607
2019-05-30,-0.0031744516904270823,-0.00469117127852037,-0.01316930713580343,0.080451484907944,0.03685341438746395,0.04181288889050837,-0.021171472008537192,0.09760486605275825,0.2588336913005324,0.526650056574081
2019-05-31,0.02200839392601664,-0.010588142723648953,0.0003081636993630809,0.06310905636141478,0.056432044551611764,0.026454581106934327,0.05563182548294942,0.10104240900860484,0.23154352321739208,0.45405814536936207
2019-06-03,-0.00041725158743679544,0.014684506042977337,0.0223482214824945,0.05270571600584486,0.06891802186332105,0.010973784856678518,0.09325580230908527,0.07681003855059196,0.1945337802861624,0.4661873801902808
2019-06-04,0.025677658439634127,0.01694301395246169,0.0383396583643763,0.09411480810579452,-0.007721799617934112,-0.00879303694138563,0.019731838906514983,0.033879208934469794,0.182780162918518,0.6050484869375503
2019-06-05,0.019199017766712324,-0.006262614871621667,0.02260811031159159,0.0664352653710047,0.05412954395057049,0.023880489367984745,0.03748100270582067,0.06432388740861288,0.20649201641766643,0.5117132815716577
2019-06-06,0.002545244285211363,0.021410388700584742,-0.00636823881890067,0.08622581784163927,0.050109293348167154,0.004945994677640431,0.04069516545586103,0.01705163309708793,0.2404043433054829,0.5429803581072259
2019-06-07,-0.0005999522349978777,0.01010164747380363,-0.02561234666074146,0.11422732350137374,0.027801724751470327,0.03736776414810422,0.006175641788652635,-0.030543378857894425,0.27138128940634365,0.5897002866838856
2019-06-10,-0.008422987276743057,0.08949830257096252,-0.04898024858385736,0.10122329842362018,0.026559819959733052,0.005382956557372766,0.0029901747718625955,-0.038451283765760666,0.3008509007430751,0.5693490665997348
2019-06-11,-0.016449196659228848,0.06708886431015722,-0.02794381934252476,0.08837667673225878,-0.009110517083221348,0.010586910499959103,0.034275717125553884,-0.006014399618961134,0.321728962209711,0.5374608018262962
2019-06-12,0.005869750783428096,0.07848189142252632,-0.007041602614637619,0.054623451278109234,-0.014103038017482717,0.01049465334761273,-0.00259435972369791,0.02148443813871725,0.32158354308493625,0.5312012723004884
2019-06-13,-0.016317564940949655,0.0839613663796846,-0.015133331795058512,0.08452621569567864,-0.02728350631052344,0.028283958180798076,-0.01549228667256375,0.016414579984301635,0.3085026456711519,0.5525379238074805
2019-06-14,-0.00019708121379891457,0.1046892629550436,-0.005766648214880063,0.08027725140935861,-0.06043668984338207,0.03337761071359841,0.004067803799748089,0.0216272935880737,0.30849470326147505,0.5138664935447635
2019-06-17,-0.0112783664429634,0.10421224716453785,-0.0111548741954707,0.09467618651476024,-0.03775791979877489,0.03791577671255621,-0.0010984855558725812,0.011831804253444232,0.2925122950842169,0.5201413362635661
2019-06-18,0.0008011542323621831,0.060259378197780517,-0.022298524860585905,0.11202925453529947,-0.022107957606043446,-0.006010410423604289,0.004829122158342212,0.027439041382768165,0.30615652766466955,0.5389024147190116
2019-06-19,-0.007049016112958937,0.058306737147078576,0.0012083765793277973,0.07779553132135282,-0.04186938842580636,0.004077770406514651,-0.003809669647573735,0.0658244742161134,0.3229959930247143,0.5225191914912375
2019-06-20,-0.005494011554198193,0.031517004107008556,-0.016534586397645087,0.08769322707675847,-0.01219736715287293,-0.021460762936669393,0.007183843165372683,0.06288402437932097,0.32155955314270906,0.5448490761702158
2019-06-21,-0.0168796975650337,0.07560730257850397,0.010006300276610466,0.07590462034646252,-0.08981448960990095,0.03562018150285566,-0.010805860704403723,0.045534020660747236,0.3266809478298537,0.5481466746843049
2019-06-24,0.004263578182614678,0.06151480753765697,-0.0032252206581024085,0.10045132069541629,0.0029631707331379993,0.025544764837134266,-0.03844997715698646,0.07050756971788197,0.3051837586547464,0.47124622745650047
2019-06-25,0.002244637096806056,0.056641414677650846,-0.0010787928498956975,0.10351654987980718,-0.027675208839892898,0.014885700332117393,-0.03435078047041915,0.06481828773485283,0.338672237789959,0.4823259546490144
2019-06-26,-0.002423528095178434,0.049604962711227364,-0.04282977303586351,0.1397207198260293,-0.011832991603257322,0.02089038177469147,-0.007803776691568143,0.0443430320546237,0.2964754337704496,0.5138555392888461
2019-06-27,0.008415779556973335,0.028299044770047615,0.039787491023485014,0.08683498583266987,-0.03129208875254133,0.012628901437296135,0.001565956840863022,0.08026087831446414,0.30083502287364045,0.4726640281031018
2019-06-28,-0.01279445084413233,0.026691344411727016,-0.0051119494398787066,0.10243756813550292,-0.0009072184144160467,0.011459506001409969,0.00375589066566899,0.08022519631006939,0.31788835493283785,0.47635575824121085
2019-07-01,-0.0124893508203572,0.04697063467384978,0.00732118965052263,0.10331831505214713,-0.010984740353233106,0.00030339180149003295,0.005183543021452456,0.07558800999374998,0.2959437335492445,0.4888452734311337
2019-07-02,-0.008144749691677233,0.06471058419823242,-0.01104246761529864,0.09135378778970846,0.029863919282641396,0.0019138849095766044,0.011460733977664237,-0.003972679182402289,0.32414724238826825,0.4997097439432868
2019-07-03,-0.001737671420508082,0.051548350444470946,0.0029603966040136157,0.11321617165412039,0.01779195730764565,-0.00789629079218005,0.014275472305888787,-0.01988312851800393,0.3298619463051074,0.49986279610944545
2019-07-05,0.00028604166076214954,0.07762585052140843,0.0024984218576425948,0.12293325032694526,-0.021071755097808294,-0.021285579437896943,0.024392513722190333,0.0038130650578684817,0.3152523399613604,0.49555585142752745
2019-07-08,-0.004354124451137241,0.06551947057063053,-0.020083304449654615,0.12448025442938587,-0.02943706316596998,0.0010292951914252309,-0.002498124813463987,0.006517454593471297,0.3352002330748133,0.5236259090204997
2019-07-09,-0.006675160583827796,0.058793657359866115,-0.011163666559480097,0.1232935567412486,-0.010742327115249029,-0.01032395962347869,-0.04630340521057137,0.05071986055980399,0.34868917330344334,0.5037122711282448
2019-07-10,0.0036039834885790464,0.050571580804488536,-0.011649831060989883,0.11338191217552956,-0.00847013354401845,5.793905038425206e-05,-0.010822855264517353,0.08594192977500065,0.3013706997513848,0.4760147748241588
2019-07-11,0.0081082509522788,0.04905024748755541,-0.0115194761686791,0.11818654022818627,-0.04113022414789979,-0.009818369257260082,0.010113425714775363,0.011466750372207929,0.3379157770715598,0.5276270777472754
2019-07-12,0.0002811394506892224,0.06155696316184858,-0.013902744167567148,0.12383859610548402,-0.02409625609510405,0.004618088289207873,0.008730940920645849,-0.02000130277580074,0.3378967393225992,0.521077835787997
2019-07-15,-0.004237374371332013,0.0669325811846437,-0.00429168625580272,0.10837107987343671,-0.037577859757693385,0.025324044815415312,0.02438708769787869,0.0028238992909121324,0.3388067354697343,0.4794614920528074
2019-07-16,-0.0027621648983299184,0.07608000053433597,-0.030307234406564135,0.11083721438878133,-0.02968991077001434,0.002382843350425779,0.04472107439240512,0.01798013148447082,0.34606676157554167,0.46469128434894774
2019-07-17,0.011300426897494038,0.06256894725275726,0.011752953579565417,0.0944449954600872,-0.03782496764446136,0.05016945727667967,0.05021929195695876,0.007807686205810248,0.3130140314438681,0.4365471775712407
2019-07-18,0.006575351494228206,0.0374073781473599,-0.006222337294853404,0.10381853596623568,-0.023916484593655085,0.009438809148590466,0.03676218994842337,0.003290701729844819,0.3504148372587409,0.48243101819508505
2019-07-19,0.009080528344730415,0.03541028284260369,-0.006461400494149532,0.11812917480973277,-0.03350637676947156,0.03028284279595833,0.04164064382431827,0.01827389011223836,0.31630497711241723,0.470845437421622
2019-07-22,0.005186650685815811,0.039434932161937684,-0.0036950239067870885,0.10721818548476178,-0.05144247713593559,0.030660004714075338,0.016080814752186878,-0.0033203382043786125,0.3467937933896958,0.513083458058628
2019-07-23,0.004246264136775334,-0.016118928045479496,-0.020910992409364202,0.11317876390243237,-0.03507938956977051,0.006388022451454781,0.042584680146270815,-0.012091285386437816,0.38148216026089726,0.5363207045132214
2019-07-24,0.008873775935281027,0.10662186723686036,-0.016406884605802304,0.08719075386361658,-0.01625905554549888,0.039983969655047864,0.039189193126595835,0.004424994072808813,0.31692427876472684,0.4294571074963639
2019-07-25,0.004336715720462257,0.13168374469789573,-0.035313458186860394,0.07702009665688486,0.005085068103803064,0.05010852216094057,0.05952098046623381,-0.0016266232808662216,0.3118468251093588,0.3973381285521475
2019-07-26,0.00776552017284744,0.17163257687790448,-0.0404247061662333,0.06316085329660602,-0.00672373048003173,0.02886807392814777,0.05886801698249873,-0.018329566698763275,0.3229220238745293,0.41226093821249443
2019-07-29,0.002573801906500969,0.17315302093316584,-0.029052323923126608,0.05895163835039664,0.006802499533766663,0.041659830859890536,0.03986873268706281,-0.008895672911411804,0.3183585372670471,0.396579935296708
2019-07-30,0.006711614067507837,0.1758585413634042,-0.03935986341972074,0.08103398513974834,-0.02306591814928088,0.060803436922260305,0.009307669200610809,0.01314722617236162,0.320076867456459,0.3954864412466496
2019-07-31,0.012896051831061095,0.19028490262217934,-0.034168252526050505,0.09385629098603075,-0.004987664529034657,0.027062783593019127,0.052500770201719706,-0.09662328199124248,0.3489582111713066,0.4102201886410112
2019-08-01,0.005973557562002581,0.16342830682016257,0.012419064958040637,0.054976496961925476,0.005940103799603387,0.05105187669389693,0.050592927092083205,-0.02072078090148497,0.27948133730602565,0.39685710970774457
2019-08-02,0.01791296765749304,0.16686487071366052,0.008183162936169115,0.06233752548091259,0.009219475450275008,0.013327314547902916,0.08625470766072081,-0.05019345029751014,0.29286161271605726,0.3932318131343189
2019-08-05,0.011958672991382206,0.15178754806487268,0.028704685449773677,0.06588448912307017,0.0052773330248150185,0.026043005224223943,0.07950394509160043,0.03039884721915764,0.24020867116934652,0.36023280264175755
2019-08-06,0.009143825160309737,0.13860564085170596,0.04039481377264299,0.061759307766325905,-0.01082222560043377,0.019660358501432818,0.059045035323263904,-0.004750529406282264,0.2554566668769384,0.4315071067540964
2019-08-07,0.006100164827103863,0.11144365377443335,0.03381410475420255,0.07695796723723267,0.0241999881043398,0.04740323001154387,0.05200071038545549,0.021574308844568405,0.23817010982856995,0.3883357622325502
2019-08-08,-0.0004444028792927492,0.1672591519360141,0.00570697546563886,0.08304924282846421,0.004165576506715584,0.014656597314871308,0.019188175096822722,0.04567900168305233,0.2581392396704838,0.40260044237723
2019-08-09,0.018135510682767687,0.17054099832587083,0.027682039585405587,0.08186603428518953,-7.52352200697361e-05,0.021560726699439498,0.023148727156735546,0.0002741022373153186,0.26637834261040305,0.3904887536369427
2019-08-12,0.00022606621937108163,0.1650475213100209,0.016704664137576528,0.0851380355151079,0.018803538082507624,0.027963922010445886,0.044748183104425306,-0.019142542681491143,0.26192750490838457,0.3985831073936513
2019-08-13,0.0020793948030519106,0.16968674706953446,0.022039325149260783,0.08898460211320325,0.017086015808421708,0.014176588181594134,-0.0024187036869701612,0.018348875201982244,0.2552114760051903,0.41480567935473145
2019-08-14,0.007346477575736641,0.17494784816204537,0.01717926515581538,0.07790156852592382,0.05039628214091311,0.037101356874544786,0.040626308125188686,-0.013010980803613369,0.24913205843715822,0.3583798158062873
2019-08-15,0.00790366542654788,0.17547923894164927,0.018531033960301743,0.08242741231494821,0.04412819744430617,-0.005348187459623524,-0.008658772570821567,-0.01585633265756081,0.26735314031442686,0.4340406042858257
2019-08-16,0.014204582367278621,0.18740479867663712,0.0009003655643627755,0.1091975279354552,0.021319322718536454,-0.00032340248574856277,-0.0068301499241071,-0.024654677699117934,0.24833155775832416,0.4504500750883793
2019-08-19,0.0002980811546330989,0.20601424905769636,-0.003742980048543392,0.09983393926227171,0.0020653363415538625,0.0193159450040394,0.003824023223972656,-0.03146281503432646,0.26927423759794894,0.4345799834407538
2019-08-20,-0.0002307314048549663,0.1843850977971235,0.010535495176839667,0.10418562155024423,0.015208801417940895,0.02281153875936546,0.0032930045447482122,-0.005204288556224048,0.26280719681385095,0.4022082639009661
2019-08-21,-0.0020746791866964594,0.17825203164477396,-0.001384731974968357,0.11233041581962186,0.017742773568457,0.007652667098948736,0.01172291144790403,-0.00995377458700909,0.26538675915076304,0.42032562701820536
2019-08-22,-0.0012478239111916045,0.1774918931319966,0.016515123152742627,0.10163894985436707,0.08025817029999303,0.006095203202940866,0.007133639348086438,-0.017120365116217572,0.24753142703750483,0.3817037829997776
2019-08-23,0.0050836784796766,0.16379552179469037,0.01269751210999029,0.10007534967545811,0.07535083163982512,0.029905672848338293,0.027739861650386038,-0.032143444932251804,0.2395380255529923,0.3779569911808947
2019-08-26,-0.008016059779074457,0.1826189667211056,-0.012940190447209352,0.11598120130972127,0.08341433972441585,0.0012695058462778872,-0.024867882829074768,-0.032363942991540905,0.2503704036943659,0.44453365875101286
2019-08-27,0.009945955621357335,0.15781597197226319,0.003944652560550866,0.10522709252199233,0.07651553299494607,0.028951905029760194,-0.014295603568907727,-0.020952164245065404,0.24023920747339106,0.4126074496397121
2019-08-28,0.0027831814312455384,0.1596287724930402,0.0212043259578247,0.11568031948856042,0.06375292861162614,-0.0023093739618634834,-0.011031379791073844,-0.004869151434266271,0.24292374319265178,0.41223663401225497
2019-08-29,0.016580711972895904,0.17856293433831225,0.024400795081520824,0.11093843747214244,0.04599530892098958,-0.003811170964121441,-0.016848875714753877,-0.00290381193641675,0.23768407575079076,0.40940159507864027
2019-08-30,0.004654472637594632,0.18234916759640396,0.019374340102185434,0.11376317492391264,0.031186976361190572,0.0071951649768894465,-0.006565594038677771,-0.015557029059267523,0.2556814275062172,0.4079178989935516
2019-09-03,-0.0023986763766227497,0.18562374216651822,0.004284777924219782,0.11738674295770644,0.019218413357011136,0.013517788415733888,-0.004174142556248763,-0.017841322723731953,0.26108649921098837,0.4232961776244255
2019-09-04,-0.004103945607749163,0.17297624772972006,-0.019316357546469355,0.13150009419156883,0.05466049948388815,0.026274505679084684,0.008500975589456105,-0.036737403571741815,0.23470059994291254,0.4315447841093299
2019-09-05,0.002796998554614135,0.18620467752188105,0.00635847817548648,0.13080342620508714,0.027878272341984252,-0.008476339340821313,0.007189721840670019,-0.01500401534147393,0.22934414970584857,0.4329046303367236
2019-09-06,-0.005253481498352479,0.17112291734147733,0.03412030747550683,0.11519309940195917,0.019469169503490008,0.025465498753877838,0.010575108796344426,-0.00829037175300941,0.2434358684723924,0.3941618835063139
2019-09-09,-0.006287826521906007,0.19555842157161435,0.009808679929885745,0.1278016354174075,0.014777918059027267,0.005902796982131913,-0.002768294927827021,-0.017592332335054785,0.24990147438056556,0.42289752744415543
2019-09-10,-0.002120120183903035,0.17239225996202956,0.02932263347494281,0.12242118735984503,0.015309492383027628,0.02199610532833659,0.01748725601186114,-0.014087080418407968,0.24117097502292242,0.39610729105934583
2019-09-11,0.0026880286484299095,0.17360236255154868,0.02990684785147978,0.13156548517557526,0.03018236023443035,0.0378745725608009,0.014693114224295726,-0.026563900742505992,0.2292495201565825,0.37680160933936296
2019-09-12,-0.004155658484409031,0.166113478633848,0.0395521239177484,0.1368123704893306,0.017950727843308274,0.03852875248737979,0.01550214416648614,0.0036275714753024675,0.2291932690164559,0.3568752204545496
2019-09-13,-0.002149857965104419,0.17732439474171946,0.03620187458320635,0.14226649361208912,0.009090796159714988,0.04457100787413161,0.013739946831049213,0.007867893148536127,0.22015425060018537,0.3509332004144721
2019-09-16,-0.014917905965821496,0.2096712386500032,0.011993848898246173,0.14490425371580734,0.003249226364305704,0.07006697265198097,0.00892687139971289,-0.02309144925700302,0.23189112900814352,0.35730581453462484
2019-09-17,0.0004240028209856766,0.18016972004835283,0.012776945426712047,0.12472413008060843,0.006727968215813066,0.06227162305607675,0.019405798243719196,-0.005052648207997357,0.22792184749641456,0.3706306128193148
2019-09-18,-0.007462445042175895,0.18594640886101507,0.016656304083991307,0.12954719441246917,0.02852475499895745,0.05219177331776952,0.0204102799617598,-0.005643640105048034,0.22058632690865002,0.3592430426026116
2019-09-19,-0.0030701767502674202,0.19129686768609824,0.008601437172511515,0.13232212663361972,0.02507944349277217,0.061356209805223355,0.011813086989476215,-0.009432747634926969,0.228400041471369,0.3536337111341241
2019-09-20,-0.00885735330390075,0.18286819026760767,0.0021289309344445662,0.11739255648142907,0.03259128841176623,0.05822128738000687,0.020014326336785276,0.011391963386775956,0.22931540076016915,0.35493340934491596
2019-09-23,-0.00210343300005466,0.20858366165222558,0.008491560735144408,0.14292461783898674,-0.00718296768355066,0.05531499484809078,0.012593783385567532,-0.026663991557880663,0.2337908916435558,0.37425088213791513
2019-09-24,-0.0007501705116613187,0.18127060180958926,-0.006763598298800566,0.1291299564464287,0.023056414705615754,0.06843668806893884,0.024420026459170734,0.008290676247655376,0.22395224021230178,0.3489571648607614
2019-09-25,-0.0001971105996679092,0.1980974998232054,0.006833660398221798,0.1495580497438908,0.04776347559084497,0.040608736794875595,-0.03116638634540335,-0.018419512101861706,0.22999679905034756,0.37692478764554677
2019-09-26,-0.0005172646134698822,0.18376479429451856,0.01689977567212195,0.1359735014353693,0.059524871935625806,0.04741169531399583,0.00041093686127728423,0.000254368927635328,0.21780298148410515,0.3384743386888206
2019-09-27,-0.005442809082337194,0.19670309788116708,0.019049890434137302,0.14079235673756962,0.023756564559426246,0.04847403457460187,-0.004500613109697142,0.0030149082185549425,0.2237758070389697,0.35437676274760765
2019-09-30,0.002736354450871669,0.19347968819549768,0.012936614275666723,0.1505987556128485,0.03673264654710562,0.05400644023637261,-0.001246235920168529,-0.012334140571158838,0.21691151134032066,0.346178365832644
2019-10-01,0.005664517214615182,0.18153306508945571,0.02710613551700466,0.12931117406939716,0.04086163202679506,0.055583547705846156,0.016393087685015528,0.015826217672545096,0.20911234142867738,0.3186082815906481
2019-10-02,0.0023798467196259232,0.17733930114640428,0.013670983790915322,0.14582552850133335,0.04309152952868919,0.03907554468873951,0.026310720213587817,0.03187606873968538,0.1974710290674242,0.3229594476035951
2019-10-03,0.002355044618943895,0.1983929702369594,0.009353510904862545,0.1502151910172875,0.04504118365639841,0.01989476571192422,0.007939534452619006,-0.0037457494944813214,0.2086344107759458,0.36191913811954063
2019-10-04,0.009417034364075538,0.20133266582793868,0.018702947613137066,0.14062389300827274,-0.002518680232132702,0.01911910947021041,0.00393461205329171,0.0062319262453196704,0.22516041257568037,0.3779960790742064
2019-10-07,0.008764596058550934,0.19349244646883337,0.016199240230719184,0.15255177410288182,0.00594953467778919,0.040517603836498016,-0.002626371273605871,0.016926021088990915,0.21288009402528046,0.355345060784062
2019-10-08,0.0012751741330994514,0.19174367265686337,0.02143779941157751,0.15605755725016596,0.013312309444165314,0.037630840179873476,0.027264895480296543,0.009547424776838473,0.19865624305134869,0.34307408361577113
2019-10-09,0.008069763628311546,0.1964940398407365,0.004789888256074501,0.16573872213169497,0.004057107364665541,0.011152119563975302,0.012573614488453065,-0.0010761737652203412,0.21812830148275528,0.3800726170085536
2019-10-10,0.007357378306160768,0.1988785993201471,0.013721645981638907,0.14931296497565244,0.013380162853471803,0.022144634537386555,0.021633785726644726,0.00641082080957163,0.21034741482280572,0.3568125926665203
2019-10-11,0.009132429722914432,0.19698311268773633,0.010158184396531085,0.14512002777503855,0.015580474529750834,0.026791155413171744,0.016453310084322697,0.028595057739054117,0.20986070590278824,0.341325541748692
2019-10-14,0.004948849663329565,0.18160060144997048,0.01999613977894888,0.13899599806067311,0.017477124873072455,0.04018577638597326,0.01945507020540347,0.0486666638869368,0.20496090226463404,0.323712873431058
2019-10-15,0.0028201924129778264,0.19013561369591864,0.020710839152040073,0.1324950015475572,-0.003321108166328726,0.0377456041749947,0.023218106350167897,0.04595811564376042,0.21016704969397568,0.3400705854949363
2019-10-16,-0.004314304505419754,0.18326560131307962,0.025745156017646823,0.12853985786024616,0.004872534465551877,0.06499428443017355,0.019554503015884305,0.040131172741052566,0.213903651255918,0.32330754340586687
2019-10-17,-0.00628280298516436,0.21850459959558732,0.02124204376624261,0.14270900553944518,-0.04346455941243875,0.06619339560389668,0.0011294518994405464,0.04005022363100312,0.22373186048396929,0.33618678187801837
2019-10-18,5.55553788236026e-05,0.20390433287908608,0.00945288101891646,0.13907095922669946,-0.018186244890820845,0.06982262852079375,0.009421584989820956,0.044578834510962145,0.21779072393262575,0.3240887444330926
2019-10-21,-0.0017582040697530126,0.20620989866028333,0.004191268418837749,0.1488562224798294,-0.020763858126409757,0.06731686739965886,-0.009047814559290454,0.05575289430306081,0.20515362370437834,0.3440891017894046
2019-10-22,0.0065207155857143,0.1800960214143073,0.012269679364342386,0.13839494169732794,-0.034067193032076844,0.08839310391141465,0.005528380084503343,0.0688213956953022,0.19889615163045163,0.3351468036487131
2019-10-23,0.0022252643725539562,0.1932538741127867,0.01775713914156032,0.13721880398790684,-0.011113537337581414,0.09321634512987126,0.0022432343620488893,0.05958815590987211,0.18615268290487472,0.3194580374161065
2019-10-24,0.00391046683015755,0.18490674642427687,0.00961477717576684,0.14505704895593396,-0.014521178677795244,0.09187988471058312,0.004844447098796968,0.07115164170381583,0.18950414252565265,0.31365202325281144
2019-10-25,0.0028885513973285278,0.1941677562948212,0.017467920923939145,0.1355423098823382,-0.011998049587904295,0.08946514373096749,0.015054582932908137,0.07011812398229039,0.187834215446232,0.2994594449970793
2019-10-28,-0.0055027860594625295,0.2068080340863177,0.02288543036213993,0.14055887748478224,-0.021031178685099034,0.10440205830524361,-0.010859356778540333,0.07777800245803401,0.18693445295944155,0.29802646586714276
2019-10-29,-0.007214905529630975,0.20023039071026386,0.01734237147016155,0.12550586650812418,-0.01467592273841243,0.10023701323573822,0.0011225006172300978,0.09903360458894757,0.2149831010686413,0.26343598006893654
2019-10-30,-0.0046455636763278645,0.21562060660924812,0.014508017505144528,0.1239802086224483,-0.023336394327596825,0.10217942345865205,-0.009815384859716619,0.07042047468581121,0.21101436977571944,0.30007424220661766
2019-10-31,-0.013853180160446182,0.21373431424462305,0.008830872094732885,0.12351664195929724,-0.0223910016140441,0.09888792790615107,0.0036475773539570598,0.08251432988509541,0.2182584945384408,0.28685402379219277
2019-11-01,0.0027938779653145247,0.20368076792977005,0.0039924689946132805,0.12986900619362438,-0.03679297033186298,0.09175287779130582,-0.0016728612398481373,0.09773810317012481,0.21996423459089795,0.2886744949360603
2019-11-04,0.0016039155405103947,0.19720321716534436,0.011287062990755721,0.12244549021056081,-0.00757298132685886,0.10589208627334408,0.0033906834125915753,0.10730890141143991,0.19257979869597336,0.2658618256263387
2019-11-05,-0.0007939832933969183,0.18345180656954538,0.041817027418828936,0.11459066623155043,-0.01400234405645723,0.10521806925178821,0.011809497579568713,0.11223885336054083,0.1940888805691121,0.25158152636891956
2019-11-06,0.0009175291853496033,0.1887792967667042,0.0028615778944519076,0.11702851706465747,-0.01355385382776083,0.11453838425656498,0.011188797801528568,0.11777677832452103,0.2142445062377349,0.24621846629624822
2019-11-07,-0.009450987239745585,0.19844159803963163,0.02384094430358774,0.11799342204644489,-0.014394216411667589,0.1138539986241857,0.014768518421964636,0.1073662423713379,0.20221921944666424,0.2453612603975964
2019-11-08,-0.001147982126930023,0.1925268916280512,0.017250851674940386,0.10669919886026606,-0.01891804418520488,0.12319497874243525,0.00977297348344736,0.12409114636517399,0.19874766371206093,0.24778232184575988
2019-11-11,-0.007409915472560251,0.212894788995207,0.013478860405775183,0.08547676384095337,-0.029604372454785418,0.12266053968360494,0.008516776947834571,0.12947456563029666,0.21253173154465355,0.2519802608790203
2019-11-12,0.004078221146304274,0.211876001993222,0.02215632944014901,0.06393637119598232,-0.02940362963994717,0.12270999206896593,0.0010860354481364222,0.13554223582740385,0.21131095940963873,0.2567074831101446
2019-11-13,-0.004854630451271179,0.21314065972286486,0.026229541820717045,0.05591624642816514,-0.0032359004945158023,0.11335322791647766,0.00530611060617626,0.13029535114163285,0.21443050285156878,0.24941889045818444
2019-11-14,-0.002091978680384694,0.2143714783924445,0.023140456798172386,0.06515845609023688,-0.025745612815879663,0.11287860808499303,-0.00478900091949098,0.14138838973491258,0.21776044580964135,0.25792875750535454
2019-11-15,-0.005259400141401472,0.215286854767092,0.013001494999126013,0.07185070938906943,-0.015253751014473592,0.11471543753365414,0.008027342968944615,0.1272556117272437,0.21147475023893844,0.2589009495318068
2019-11-18,-0.0030544820157806045,0.21009310438966636,0.02278919655876059,0.07288612452941157,-0.007738956869961708,0.11199957295369994,-0.006365890314052447,0.134517238321552,0.21471352554470763,0.2501605669019967
2019-11-19,-0.004511086132118101,0.19126850871175757,0.03387638603403596,0.06960442990043131,0.006298136083911227,0.11385326820713816,0.0007875954553526595,0.13681666055218727,0.2059926225865224,0.24601347860078165
2019-11-20,-0.01109929939206488,0.20287209612673496,0.0075139206304641526,0.058674933734705975,0.008966111401628835,0.12103710007600625,-0.0009049198528151936,0.14104468468498596,0.21541971646779787,0.2564756561225562
2019-11-21,-0.004937483658334481,0.19129717613542857,0.008925019154659803,0.05842296042611542,0.016366495410588943,0.11282741957420402,0.0011597221343748242,0.12814010099522405,0.22024539773275548,0.2675531920949834
2019-11-22,-9.662303162474987e-05,0.185561816706757,0.007949973763071758,0.04762092405836773,0.01877574851561061,0.1172071944369885,0.011618928160520216,0.13130777565814397,0.22133789301778978,0.2587163687143751
2019-11-25,-0.0013608310922310104,0.1966751959254119,0.004573991535996531,0.05449867925268074,0.017298176797481486,0.12488860172143104,0.007602520738427682,0.12899348364453922,0.21934951354367177,0.24748066793259074
2019-11-26,-0.0027833208922785624,0.188907886456306,0.008120520456709341,0.05639621887471409,0.03653461501198996,0.12651819326844163,-0.005111390456242932,0.13570436640989492,0.2164528266465109,0.23926008422395462
2019-11-27,-0.0011832944866781287,0.1910214016163406,0.014524699192358131,0.059382147603492266,0.03322794493380459,0.12001671417424566,0.005936347182213213,0.12692516885924576,0.21072177878772652,0.23942709213725138
2019-11-29,-0.002317837840678906,0.18734872400185087,0.008661418807568528,0.06230972847748821,0.031537124974642915,0.12106109600180047,0.008064264350797677,0.13371704465216677,0.2139437488571816,0.23567468771718184
2019-12-02,-0.003907847816041108,0.18667623974371997,0.006188331975133666,0.061424118670051486,0.02651852129229675,0.11954695871346552,0.015412685727557841,0.13568300690028431,0.2160022742347004,0.2364557105588313
2019-12-03,-0.0033593027170281163,0.1880698506982464,0.007956498693567756,0.055339169814530124,0.02628239594480883,0.127529853976121,0.0076366710387042805,0.13643419622560066,0.21984933820393437,0.23426132812151476
2019-12-04,-0.005992854972723435,0.19721714547984032,0.012397638434535074,0.058421353422004725,0.018117673868326713,0.11736124829905079,0.0015726299561004014,0.1323545614010239,0.22286800467622914,0.2456825994356123
2019-12-05,-0.0030630906907324743,0.18141050599318279,0.018011523475677624,0.06610286818866007,0.026135571536706915,0.13167332580151223,-0.003108584206521004,0.1257020934709624,0.2119073964272568,0.24522839000329474
2019-12-06,-0.0006481868533926764,0.1831359050010592,0.0046775766660177645,0.07474500433802958,0.03373462972743548,0.1305964981096885,-0.006737916768274192,0.1268278388349904,0.20947931163715788,0.244189339307288
2019-12-09,-0.0008062592964467998,0.17720851109137734,0.014787612716760311,0.07780232478383359,0.031608967741360995,0.13120895394365048,-0.0005093853864337331,0.1389048866067491,0.2040498455188319,0.22574454228031673
2019-12-10,-0.001406011146373116,0.18648041093634699,0.007786060771461814,0.07369285863711943,0.023321099530578832,0.13106134234437936,-0.0021084443943311265,0.13413131361385455,0.21043266335986624,0.23660870634709694
2019-12-11,-0.003996748607674008,0.17753534417869551,0.01999092184251676,0.07589597138575813,0.0267190425133045,0.13371424479885696,-0.007433152222533099,0.13907624133136157,0.20918534880955872,0.22931278597015495
2019-12-12,-0.006769481585523231,0.17865458966868003,0.007062825769312189,0.06977998129341131,0.03756618971196102,0.1304733376032126,-0.001542919289182636,0.14799671137650064,0.20550270495214745,0.23127606049948074
2019-12-13,0.0012544661284307696,0.16912608585550587,0.014953004781788978,0.07233713116935474,0.04588686632717512,0.14041244561332458,0.004647248161877912,0.137037084892843,0.2017672544779556,0.21257841259174357
2019-12-16,-0.006298733884668758,0.1687830079114581,0.010200613126282478,0.0779352622694765,0.041876022550949445,0.13400028982872714,0.001963030077851304,0.14309675790898832,0.2068199720457798,0.22162377816515566
2019-12-17,-0.0020102328501352957,0.1687029098069884,0.004765972481600355,0.07883160370384608,0.055195525459153426,0.13087239232764922,-0.003076542217003595,0.1436865934941588,0.20083334117774362,0.2221984366159988
2019-12-18,-0.00425930380241543,0.1676220158183807,0.011452201809229744,0.07935688930839029,0.054996183978274396,0.1363568077446669,0.0041854043766431925,0.14668371926182905,0.20300095681939584,0.20060512468560543
2019-12-19,0.0022821506031599484,0.1626043927106206,0.0016051515087446414,0.07763049447507787,0.058613732654744156,0.13471791139037195,0.0023655406310620916,0.14579507077181428,0.19608581197142239,0.21829974328298193
2019-12-20,-0.009087044889694888,0.16157467111480342,0.009891449195755134,0.06702688184635942,0.060640313374370036,0.13133953851109811,0.0032877198759154688,0.14995176517897962,0.1995613446318437,0.22581336116057002
2019-12-23,-0.0029345308090509394,0.16451398578075405,0.0013359037061105561,0.07212317373706313,0.05827736766835453,0.1288173047765488,0.0014705762934422602,0.14364217509083163,0.20345729886036082,0.22929674489558502
2019-12-24,-0.004809789336619845,0.1633016537887305,0.0149462090692219,0.06599565751816919,0.06456257100164497,0.12248483787476586,0.005225200362694196,0.1470307253779333,0.1999077500783278,0.2213551842651321
2019-12-26,-0.00472737316124953,0.1604693446438966,0.009155267374183353,0.07255456682566463,0.06962946989369911,0.12565311443277757,-0.000708647907160571,0.14659065892063686,0.19765268316473553,0.22373091581281648
2019-12-27,-0.002492594999122899,0.1520926737144235,0.011526437822498044,0.07068784687812663,0.06690726110151414,0.12573106477501553,0.010214684806018424,0.15587151969935797,0.19255843545654458,0.21690267074562405
2019-12-30,0.0010780425066570195,0.1459417949467833,0.014274648426964513,0.07482944718479806,0.06432415878427497,0.12501100457007416,0.013796538371887808,0.15323840753968374,0.19191062400881587,0.2155953336600604
2019-12-31,-0.0038911128255619877,0.15333923152820794,-0.005536902525943406,0.0774051317038322,0.061334413246419084,0.1303133482173388,0.0018604388481590955,0.16053823653923055,0.19792431406009958,0.2267129012082181
